Language model created by QuickLM on Tue Apr 15 19:56:08 EDT 2014
Copyright (c) 1996-2010 Carnegie Mellon University and Alexander I. Rudnicky

The model is in standard ARPA format, designed by Doug Paul while he was at MITRE.

The code that was used to produce this language model is available in Open Source.
Please visit http://www.speech.cs.cmu.edu/tools/ for more information

The (fixed) discount mass is 0.5. The backoffs are computed using the ratio method.
This model based on a corpus of 15 sentences and 30 words

\data\
ngram 1=30
ngram 2=44
ngram 3=36

\1-grams:
-0.9574 </s> -0.3010
-0.9574 <s> -0.2503
-2.1335 ALL -0.2503
-2.1335 BACKWARD -0.2503
-2.1335 BALL? -0.2503
-2.1335 CAN -0.2978
-2.1335 CHARGER? -0.2503
-2.1335 CUB -0.2503
-2.1335 DANCE -0.2503
-2.1335 DANCING -0.2503
-2.1335 FORWARD -0.2503
-2.1335 HELLO -0.2978
-1.6564 IS -0.2913
-2.1335 IT? -0.2503
-2.1335 LEFT -0.2503
-2.1335 ME? -0.2503
-1.5315 MOVE -0.2881
-2.1335 MOVING -0.2503
-2.1335 MY -0.2978
-2.1335 PLAY -0.2978
-2.1335 PLAYING -0.2503
-2.1335 RIGHT -0.2503
-2.1335 SEE -0.2978
-2.1335 SOMETHING -0.2503
-1.5315 STOP -0.2881
-1.8325 THE -0.2946
-2.1335 TIME -0.2913
-2.1335 WHAT -0.2978
-1.8325 WHERE -0.2913
-2.1335 YOU -0.2978

\2-grams:
-1.4771 <s> CAN 0.0000
-1.4771 <s> DANCE 0.0000
-1.4771 <s> HELLO 0.0000
-0.8751 <s> MOVE 0.0000
-1.4771 <s> PLAY 0.0000
-0.8751 <s> STOP 0.0000
-1.4771 <s> WHAT 0.0000
-1.1761 <s> WHERE 0.0000
-0.3010 ALL </s> -0.3010
-0.3010 BACKWARD </s> -0.3010
-0.3010 BALL? </s> -0.3010
-0.3010 CAN YOU 0.0000
-0.3010 CHARGER? </s> -0.3010
-0.3010 CUB </s> -0.3010
-0.3010 DANCE </s> -0.3010
-0.3010 DANCING </s> -0.3010
-0.3010 FORWARD </s> -0.3010
-0.3010 HELLO MY 0.0000
-0.7782 IS IT? 0.0000
-0.4771 IS THE 0.0000
-0.3010 IT? </s> -0.3010
-0.3010 LEFT </s> -0.3010
-0.3010 ME? </s> -0.3010
-0.9031 MOVE BACKWARD 0.0000
-0.9031 MOVE FORWARD 0.0000
-0.9031 MOVE LEFT 0.0000
-0.9031 MOVE RIGHT 0.0000
-0.3010 MOVING </s> -0.3010
-0.3010 MY CUB 0.0000
-0.3010 PLAY SOMETHING 0.0000
-0.3010 PLAYING </s> -0.3010
-0.3010 RIGHT </s> -0.3010
-0.3010 SEE ME? 0.0000
-0.3010 SOMETHING </s> -0.3010
-0.9031 STOP ALL 0.0000
-0.9031 STOP DANCING 0.0000
-0.9031 STOP MOVING 0.0000
-0.9031 STOP PLAYING 0.0000
-0.6021 THE BALL? 0.0000
-0.6021 THE CHARGER? 0.0000
-0.3010 TIME IS -0.2218
-0.3010 WHAT TIME 0.0000
-0.3010 WHERE IS -0.1249
-0.3010 YOU SEE 0.0000

\3-grams:
-0.3010 <s> CAN YOU
-0.3010 <s> DANCE </s>
-0.3010 <s> HELLO MY
-0.9031 <s> MOVE BACKWARD
-0.9031 <s> MOVE FORWARD
-0.9031 <s> MOVE LEFT
-0.9031 <s> MOVE RIGHT
-0.3010 <s> PLAY SOMETHING
-0.9031 <s> STOP ALL
-0.9031 <s> STOP DANCING
-0.9031 <s> STOP MOVING
-0.9031 <s> STOP PLAYING
-0.3010 <s> WHAT TIME
-0.3010 <s> WHERE IS
-0.3010 CAN YOU SEE
-0.3010 HELLO MY CUB
-0.3010 IS IT? </s>
-0.6021 IS THE BALL?
-0.6021 IS THE CHARGER?
-0.3010 MOVE BACKWARD </s>
-0.3010 MOVE FORWARD </s>
-0.3010 MOVE LEFT </s>
-0.3010 MOVE RIGHT </s>
-0.3010 MY CUB </s>
-0.3010 PLAY SOMETHING </s>
-0.3010 SEE ME? </s>
-0.3010 STOP ALL </s>
-0.3010 STOP DANCING </s>
-0.3010 STOP MOVING </s>
-0.3010 STOP PLAYING </s>
-0.3010 THE BALL? </s>
-0.3010 THE CHARGER? </s>
-0.3010 TIME IS IT?
-0.3010 WHAT TIME IS
-0.3010 WHERE IS THE
-0.3010 YOU SEE ME?

\end\
